67 100
The 0.0389579 0.0348831 -0.0243819 -0.001736 -0.00422928 -0.0227671 0.0163032 0.0447505 -0.0197864 0.0235304 0.0492381 0.0061979 -0.0364569 0.0402637 0.0224885 0.00785724 -0.0113235 -0.0357592 0.0478457 0.0137835 0.0347809 -0.00356619 -0.0423409 -0.0130889 -0.0436294 -0.000826333 -0.0116033 0.00829993 -0.0447929 0.0234085 0.0190546 -0.0355064 0.0029681 0.0217845 -0.0481477 0.00829869 0.027803 0.0103857 -0.00780345 0.040293 0.00900705 0.0245459 -0.00136783 -0.040621 -0.0388925 0.0172812 -0.0454331 -0.0437224 0.0363753 0.0328403 -0.0281563 0.0226566 0.0144639 0.0347575 0.0410128 -0.0247957 0.0457276 0.0261251 -0.0175407 0.00763988 0.0140306 0.0434031 0.0282432 -0.0194657 -0.0458256 0.0174948 -0.0392103 -0.0480577 0.0113406 0.0292442 0.0214486 0.0349626 -0.0153395 -0.0136087 -0.0435788 -0.0436727 0.0113517 -0.00210676 -0.0358325 0.00212532 -0.00797814 -0.0161429 0.0155836 0.0172892 -0.0179906 -0.00052898 0.0300142 -0.00866091 -0.0327434 -0.0370689 0.047243 0.0283175 0.0208564 -0.00232934 -0.0162261 0.0143569 0.00584877 0.0259162 0.0319655 -0.033505
Fulton 0.225407 -0.0168486 -0.15942 -0.141453 0.0929999 -0.12258 -0.0278604 0.0380401 -0.174524 -0.0458885 -0.0412362 -0.141466 0.014304 0.107564 -0.143419 0.098224 -0.0579727 -0.0033258 -0.0539061 0.00734235 -0.029431 0.114004 -0.0855209 0.177703 0.11432 0.147753 -0.000758304 0.0355215 -0.0510995 -0.0218011 -0.135986 -0.167947 0.0902938 -0.214125 0.161675 0.163895 -0.032523 0.124273 0.050551 -0.198161 -0.0137099 0.156038 0.0667478 -0.0197665 -0.190131 0.22471 0.148631 0.0640499 0.0495629 0.0518187 0.190998 0.0392276 -0.00668376 0.0957346 -0.173183 -0.0322266 -0.0150881 -0.112768 -0.206686 -0.151299 -0.0981632 -0.0587953 0.19715 -0.0876995 0.0228662 -0.0852587 -0.0506858 -0.151618 0.181023 0.0736511 -0.162383 0.129993 -0.115706 0.137723 0.00567565 0.0120287 0.120804 0.0298064 -0.0362592 0.0277979 0.104794 -0.00512308 -0.00531135 0.0537036 -0.0741714 -0.185192 0.115236 -0.189043 0.0729195 -0.0594051 -0.0160835 0.0693085 0.162868 0.138709 -0.114574 0.0975219 -0.240173 0.00889387 0.0340168 0.112435
County 0.185405 -0.0863995 -0.0982143 -0.063217 0.17892 -0.0424335 -0.0895943 0.0115426 -0.0160321 -0.0200461 0.0157042 -0.138713 0.189461 0.00618395 -0.013904 0.136495 0.0561168 0.0151613 -0.24109 -0.0852803 0.17589 0.0241075 0.0448828 0.178745 0.0623078 0.0601049 -0.00183765 0.0618768 0.0455996 -0.0699927 -0.0795184 -0.117216 0.17512 -0.111897 0.103523 -0.00886561 0.0377039 -0.186016 -0.17858 0.0352409 0.070696 0.0355327 0.170626 -0.0779814 -0.0788721 0.0384163 0.0415566 -0.146066 0.0017023 0.00444902 -0.0830318 0.196861 -0.163173 0.100165 -0.136861 0.19283 -0.142466 0.0255661 -0.0145414 -0.16597 0.107284 0.0157602 0.0849639 0.0421314 0.0539679 -0.0241928 0.00838456 -0.10759 0.105853 0.124886 -0.064815 0.129534 0.0223079 0.178669 0.0990535 0.12743 -0.0435075 -0.0898809 -0.152547 -0.103954 0.106252 0.0952296 -0.0777204 -0.176096 -0.101016 -0.11848 -0.0164115 0.0610904 0.119496 0.0349799 -0.0200745 0.056213 0.200441 0.112209 -0.0783535 0.0714703 -0.109896 -0.0462774 0.176506 0.058265
Grand 0.125342 -0.0733393 -0.0905807 -0.0184521 0.212631 -0.11332 0.0866009 -0.120737 0.0102358 -0.0423303 -0.151324 -0.129845 0.102583 0.112315 -0.120778 0.0861941 0.145912 0.0156988 0.00526126 -0.202852 0.17874 0.0767927 -0.0916319 0.232976 0.180968 0.0855552 0.0886856 -0.153174 -0.0707884 0.0736726 -0.131774 -0.0910864 0.276833 -0.189931 0.120535 -0.0958285 0.117245 -0.0803293 -0.035273 -0.0451547 -0.0329841 -0.0340382 0.00313105 -0.102507 -0.162694 0.0482952 0.0884954 -0.180229 0.0337511 -0.0538591 -0.113519 0.144394 -0.121388 0.00309199 -0.267343 0.0673309 -0.188865 0.0682636 -0.107414 -0.104755 0.0194855 0.126429 -0.00425736 -0.0497487 -0.0639124 -0.0752189 -0.0558351 -0.179807 0.0454991 0.0635296 -0.132501 0.191981 0.00106608 0.176798 0.00724295 0.015582 0.0527709 0.101479 -0.0846551 -0.0717979 0.136468 -0.0772606 -0.0168291 -0.153066 -0.162892 -0.213677 0.0745826 0.0187871 0.0367163 0.0725717 -0.151516 0.0318455 0.105962 -0.0189281 -0.111947 0.0787068 -0.0484781 -0.0919932 0.0397463 0.130627
Jury 0.0741289 -0.118221 -0.047165 -0.0947461 0.117144 -0.015007 -0.156698 -0.0793216 0.0146073 -0.116961 -0.0639522 -0.25753 0.20782 -0.141165 0.0406159 0.0445834 -0.00272834 -0.0247109 -0.20463 -0.148263 0.223188 -0.198295 0.196589 0.162037 0.0615551 0.0300917 0.084012 0.16704 0.127069 0.156797 0.00132031 -0.00543026 0.145351 -0.0482195 -0.152523 -0.0116737 0.020427 -0.174217 -0.227542 0.108944 0.190659 0.0166774 0.0901484 -0.000346133 0.0988546 -0.083144 0.182258 -0.166278 -0.203948 -0.057882 -0.0806905 0.120913 -0.134504 0.0925946 -0.179211 0.127584 -0.0924699 0.023947 -0.135337 -0.128858 0.198769 0.0720771 -0.0778408 -0.0121335 0.0872066 0.00765696 0.128836 0.113617 -0.0151649 -0.019821 -0.131765 0.077082 0.158956 0.116978 0.0988345 0.166632 0.0575332 0.137531 -0.104254 -0.185676 0.117524 -0.0343976 -0.0699571 -0.117019 -0.0711371 -0.0868393 -0.0952885 0.120846 0.175766 0.128902 -0.147927 0.0944014 0.113111 0.0872026 -0.00146729 0.166093 -0.010375 -0.0248922 0.173095 0.172732
said 0.0196999 0.0410397 -0.0727709 -0.144738 0.0874897 -0.209165 -0.130613 -0.0293131 -0.107032 -0.168348 0.0693047 -0.140401 0.155147 0.17696 -0.0848706 -0.0141161 0.221364 0.0798178 -0.220162 -0.0215523 0.0931266 0.00732649 -0.097325 0.219778 0.0212477 0.0979474 -0.0295072 -0.115489 -0.0955112 -0.0258969 -0.0114931 -0.222918 0.169027 -0.225263 0.121753 0.173304 0.154102 -0.12721 -0.136796 0.0639278 0.0861712 0.134635 0.0639393 -0.0666407 -0.170623 0.124637 -0.0850292 -0.041934 -0.000906284 0.117774 0.00655435 0.218325 -0.121163 0.149474 -0.164639 0.0108657 -0.13002 -0.0267561 -0.15576 -0.185899 0.166556 0.158099 -0.0997232 -0.0954185 -0.0705731 -0.0910883 -0.089815 -0.0845204 0.0149014 0.0405417 0.0494142 0.183823 -0.095899 0.0748045 -0.0642149 0.17 -0.0479778 0.01584 -0.100709 -0.0752404 0.0376759 -0.00640364 -0.223434 -0.0210714 -0.0964928 -0.125169 -0.0176912 -0.00346861 -0.029541 0.0921807 0.0606652 0.0291699 0.0811898 0.111919 0.0150304 0.191815 -0.219338 0.0141804 0.122591 0.0885171
Friday 0.0212343 -0.0157087 -0.0823872 -0.150275 0.0994304 0.0127423 -0.130958 0.0701725 -0.0652151 -0.178057 0.0770013 -0.113901 0.189285 -0.100245 0.00336614 0.0152718 0.164317 0.03863 -0.249404 -0.0630207 0.0418302 -0.0115275 -0.0425124 0.156113 0.184713 0.13303 -0.106351 -0.0806307 -0.0449144 0.017726 0.0590174 0.00175269 0.0214816 -0.0458823 -0.116838 0.12115 0.000813177 -0.0734506 -0.172912 0.188558 0.0240996 -0.00909436 0.0682472 0.0916911 0.0244475 0.0142609 0.0603169 -0.119728 -0.0868466 -0.119647 0.0368767 0.0107709 -0.211051 0.107699 -0.119321 0.0797295 -0.0248733 -0.123143 -0.12112 -0.0781202 0.0727187 0.106104 -0.166224 -0.132373 0.0544885 -0.061355 -0.0408016 0.0441811 0.0365368 -0.0504609 -0.148954 0.126092 -0.00179331 0.0437257 0.0133267 0.145855 -0.041774 0.176854 -0.0505856 -0.0571085 0.0493371 0.122512 0.0344735 0.0320863 -0.199517 0.0492245 0.0147797 -0.0114518 -0.0412244 -0.0170139 0.0123797 0.0661958 0.150273 -0.126929 0.142008 0.191226 -0.0313925 -0.103309 0.247529 0.112979
an 0.0936057 0.0682375 -0.0234011 -0.20606 0.0440826 -0.183152 -0.0811721 0.0697987 -0.0329506 -0.0584616 0.0551111 -0.130117 0.0777433 -0.0522192 -0.204215 0.160707 0.0369287 0.10547 -0.113158 0.0206608 0.187724 -0.0538306 0.0342987 0.200634 -0.114562 0.0627455 0.0293242 -0.0146223 -0.111311 -0.0806198 -0.0775394 0.156749 0.0796115 -0.0325698 0.0405907 0.207807 -0.0508805 -0.145435 -0.0112922 -0.0657994 0.13598 0.0844448 0.0666987 -0.0128526 0.127838 0.0738248 0.0457178 -0.0528994 -0.0644353 0.224431 0.131916 0.118097 -0.165333 0.144126 -0.137089 0.268026 -0.0522044 -0.0813404 -0.013057 -0.044756 0.173416 -0.166956 -0.117548 -0.0892227 0.0810611 -0.0394855 0.168321 0.0988688 0.160749 0.101607 0.079318 0.157132 0.0632385 0.216428 -0.0134661 0.27549 -0.0514555 -0.0304661 -0.214407 -0.00872848 0.0259956 0.021417 -0.127906 0.146082 -0.262282 -0.0863163 -0.101528 0.0153502 0.0406503 -0.286605 -0.0811409 0.16716 0.0291513 0.0549008 -0.0844558 0.0943968 0.0100891 -0.043736 0.0526994 0.0638904
investigation 0.0169165 0.215219 0.00513946 -0.0887838 0.222855 0.114367 -0.132659 -0.133578 -0.0102907 -0.00573268 -0.0640032 -0.03585 0.101845 -0.20612 -0.0822212 -0.0589988 -0.027971 -0.0816084 -0.176629 -0.00934304 0.248964 -0.192029 0.0742047 0.0383298 0.0491929 0.0572891 0.0377225 -0.0018504 0.0611264 -0.142352 -0.0229799 0.0649365 0.159182 -0.0936445 -0.10929 -0.138039 0.130123 -0.17919 -0.0798833 0.0505474 -0.0977091 -0.0954292 -0.0462233 0.0664819 0.00553869 -0.183577 -0.00503468 -0.190025 -0.168105 -0.0242201 -0.0660217 -0.061607 -0.0858235 0.129832 -0.14861 0.161235 -0.162214 0.0365889 -0.0276727 0.214424 0.142004 0.0749197 -0.0313191 -0.124017 0.136117 -0.0436582 0.141574 0.0180229 0.0812271 -0.0487741 0.015194 -0.028693 0.171365 0.106603 -0.162245 0.11175 0.021509 0.152765 -0.0457368 -0.00249018 -0.0530826 0.0886174 -0.0748598 0.0821559 0.0300333 -0.0437901 -0.0138269 0.160421 0.0578976 -0.0789006 -0.000705658 0.0678623 0.219056 -0.0897901 -0.0844288 -0.0421817 0.120825 0.143377 0.241647 0.162924
of -0.115101 -0.0629942 -0.114738 0.147088 0.00210825 0.275285 -0.149581 -0.0454204 -0.0239121 -0.306912 -0.14349 0.264524 0.0161966 -0.0594634 0.142628 -0.192203 -0.0421237 -0.224842 0.109725 0.0891485 0.0817195 -0.295179 0.0368898 -0.323983 0.0480538 -0.259768 -0.0430506 -0.0589345 -0.142681 0.164291 -0.100529 0.0379019 -0.0141326 0.259669 -0.241297 -0.212985 -0.0215077 -0.0775275 -0.281339 0.219585 0.0264157 -0.276807 -0.188106 0.0622542 0.0260899 -0.261493 -0.153919 -0.184815 -0.0415786 -0.00397064 -0.277695 -0.168702 0.134991 -0.0479283 0.192376 -0.275632 -0.00481752 -0.161701 0.25106 -0.108693 -0.0433053 0.0944177 -0.278745 0.179914 0.0165208 0.104752 0.0190411 0.101058 -0.224601 -0.0218492 0.227192 -0.0560338 0.104734 -0.184735 0.102405 -0.0829271 0.0508876 0.145037 0.269572 -0.150129 0.182454 0.0949869 0.0516998 0.101738 0.215137 0.157575 -0.231544 0.232893 0.090533 0.0919679 -0.0234716 -0.362701 -0.0997588 -0.194432 0.27347 -0.101136 0.139435 -0.147074 -0.0910136 -0.120087
Atlanta's 0.060073 0.13491 0.0729148 -0.0330444 -0.0730455 -0.0687232 -0.0426048 -0.0414332 0.0809298 0.143487 0.12288 -0.0904172 0.0216831 -0.0257139 -0.0304719 0.0699442 -0.0857854 -0.0638053 -0.0526356 0.0347965 0.0914071 -0.0459196 -0.0794767 0.0805505 -0.039084 0.152012 0.121694 0.0805813 0.11765 -0.0447618 0.0302677 0.0397327 0.0627791 -0.0119734 0.168488 0.02163 0.0451461 -0.0359035 -0.0156244 -0.0314062 -0.117181 0.0600425 0.0227854 0.0143167 0.173964 -0.0706251 -0.0636875 0.0292154 -0.00238151 0.07152 0.00275806 0.0479742 -0.156053 -0.0337928 -0.0295777 0.163797 -0.042153 0.0175542 -0.0347785 0.156619 0.0553333 -0.111084 0.0806059 -0.0294004 -0.00194783 0.0192073 0.237913 -0.0027483 0.0467824 -0.0321877 -0.0629142 0.0630664 -0.0193142 0.0529473 -0.147098 0.165979 0.148164 -0.0547913 -0.14063 0.0310228 -0.100967 0.0350892 -0.0696107 0.0926288 -0.0361734 -0.113893 0.0250214 -0.0420663 -0.16605 -0.109229 -0.0685978 0.0793562 0.161774 0.0148103 -0.117745 0.0277579 0.043174 0.167113 0.0648253 -0.00771292
recent -0.150197 -0.0152516 0.170507 -0.131911 0.0582347 -0.0906714 -0.0441104 0.0280793 0.127441 0.089637 -0.0442135 -0.0220179 0.108738 0.130138 -0.0424411 -0.0359605 0.0508975 0.0255485 -0.0943325 -0.10917 0.147324 -0.0103571 -0.0106906 0.0700197 0.0433731 0.0581201 -0.0151479 -0.136928 -0.000235604 -0.0501629 -0.0296759 -0.138036 0.0823832 -0.0682576 0.0997015 -0.0254759 0.0486932 -0.133396 0.0249993 -0.0900103 0.0639033 0.00508384 -0.0746369 0.0418828 -0.0719082 -0.0183284 -0.0674036 -0.02738 0.16281 -0.137324 -0.054856 0.0818974 -0.0321048 0.0650315 -0.0723448 0.00564578 0.0295176 -0.102364 -0.122953 0.109232 0.06386 0.0785352 -0.0845449 -0.0490379 -0.127407 -0.0815739 -0.0885913 -0.0445882 -0.061787 0.0610904 0.128866 0.0225362 -0.0475098 -0.0149334 -0.0438169 0.126254 0.0126114 -0.00363042 -0.121915 0.113137 -0.0759702 0.0791822 -0.0811221 0.0994551 -0.0505192 -0.0167965 0.153404 0.114198 -0.0649186 0.0446676 -0.00770177 0.159504 0.144054 0.0675909 -0.019213 0.142315 -0.0862509 -0.0722577 0.0958464 0.051153
primary -0.21273 0.0616477 -0.00672399 -0.0804272 -0.0337911 -0.0558699 -0.197119 -0.220002 0.107498 -0.0925239 0.00652944 0.205836 -0.0114748 0.0252034 0.011967 -0.161464 0.0658467 -0.00754019 0.00764635 0.248798 0.0650096 -0.0787381 0.00856046 -0.175506 -0.0693652 -0.0942875 -0.0384027 -0.0759977 -0.0493921 -0.101641 0.0645283 -0.0160995 0.0744074 0.0779756 -0.136581 0.0393019 0.123498 0.228991 -0.089789 0.0622874 0.0924767 0.0367757 -0.110434 0.100444 0.147854 -0.0613882 0.179237 -0.102492 0.00456889 0.0497522 0.0507698 -0.041345 0.0912819 0.133548 0.0751006 -0.00177717 0.152375 -0.0249647 0.121439 0.0537934 -0.000479208 0.0872244 0.0219027 0.00983938 -0.000509858 0.00873539 -0.0699388 0.0813692 0.0696028 -0.0632789 0.0111511 -0.0529605 0.0313601 0.125754 -0.0985689 -0.0260034 0.0815731 -0.0190946 0.0568432 -0.13612 0.0759436 0.018481 0.0267056 0.0805583 0.103928 0.0311282 0.020394 0.151431 0.0717951 0.0177772 0.127981 0.0375586 -0.101102 -0.046732 0.160248 -0.0635506 -0.105081 -0.056854 0.081773 -0.0450507
election -0.12281 0.119333 0.0120574 -0.0979381 0.0312041 -0.026336 -0.183691 -0.156988 -0.0767303 -0.0861498 0.0294346 0.15788 -0.237957 -0.203275 0.00176027 -0.0714809 -0.121304 -0.111264 -0.0381143 0.144321 0.113259 -0.0470526 0.0335608 -0.166015 -0.0542563 -0.00897531 -0.127256 -0.0155986 0.0265758 -0.143149 0.0863234 0.1952 -0.136231 0.0797076 -0.129155 0.0855511 0.0193641 0.199768 0.0690352 0.0369824 0.00129092 -0.0887831 -0.0192638 0.102538 0.158503 -0.171427 0.112482 -0.0729763 -0.0859342 -0.0355729 0.100873 -0.200661 -0.0160317 0.17775 0.135466 0.1055 0.0648371 -0.081323 0.118471 0.132822 -0.0023412 0.0699578 -0.177007 -0.223962 0.0807422 0.170209 -0.0198611 0.157416 0.0445669 -0.159676 -0.109711 -0.140844 0.0231827 -0.023331 0.0665355 -0.0228065 0.0740937 0.0839191 0.0281067 0.0525159 -0.125993 0.196455 -0.00412506 0.0507732 -0.0603147 0.0761314 -0.043176 0.150198 -0.0653468 0.00978293 -0.0339725 0.0622405 -0.103585 -0.213428 0.199344 0.0405682 0.0981946 -0.0785848 0.0424537 -0.21668
produced -0.0560285 0.0564652 0.0651909 0.125226 0.123542 -0.0125201 -0.0920613 -0.0752237 0.062076 -0.0588041 -0.109437 0.0154494 0.0970284 0.0687228 0.0472629 0.0432395 -0.0557323 0.0250595 -0.00492357 -0.075194 0.103932 -0.0509758 -0.0606978 0.0208847 0.109999 -0.0438497 0.0892315 -0.0522214 -0.106988 -0.0110732 -0.103606 -0.0198807 0.0342481 0.0162579 0.0178185 -0.0985456 -0.132918 -0.0166103 -0.047497 0.051073 0.000756056 -0.175315 -0.0443552 0.0969064 0.0146872 -0.0474799 0.128522 -0.141206 -0.15107 -0.045416 -0.00312509 0.00370914 0.0520354 -0.0465821 0.0926999 -0.0335627 -0.0261717 -0.187488 0.0786215 -0.216112 -0.124267 0.0957465 0.041491 0.0660747 -0.0601682 0.00193189 0.041062 0.051999 0.0697375 0.0619237 0.00104043 0.0981995 0.0977657 0.122378 -0.0881002 -0.0818621 0.0365427 0.0262153 0.0125594 -0.0155225 -0.024522 0.0828697 0.0341335 -0.0511037 0.0329992 -0.117863 -0.10854 0.0668683 0.141937 0.0770176 -0.0811571 -0.0228049 -0.129026 -0.142341 0.0982909 -0.155304 -0.0450961 -0.123329 0.0193096 0.0315127
`` -0.0355083 0.0416937 -0.0770606 0.226487 -0.0276131 0.191969 0.0347805 -0.166113 -0.107072 -0.0429447 -0.24424 0.182919 -0.12776 -0.264023 0.180976 -0.0589926 -0.220087 -0.191916 0.0677451 -0.00439534 0.139294 -0.166569 0.264654 -0.227992 0.0974067 -0.215494 0.0315892 0.0690593 0.192951 0.124032 -0.0883926 0.197132 -0.213563 0.120926 -0.236308 -0.228464 -0.168489 0.0817441 -0.170913 0.156169 -0.0086678 -0.184141 -0.114089 0.0744663 0.222394 -0.29702 0.148213 -0.0455731 -0.0422677 0.0121526 -0.164784 -0.225015 -0.0311747 -0.0522598 0.159757 -0.199958 0.0215765 -0.0300043 0.126985 0.0616362 -0.0779132 0.137901 -0.0427055 0.00849753 0.222359 0.276124 0.05203 0.219143 -0.197724 -0.11739 -0.0893101 -0.141859 0.285014 -0.127305 -0.0104061 -0.155277 0.117066 0.139377 0.182037 -0.150502 0.047182 0.0700201 0.132248 0.0583321 0.24885 0.0962721 -0.188805 0.18033 0.15074 0.164091 -0.00462078 -0.0853355 -0.106385 -0.236451 0.170863 -0.076065 0.137308 -0.011633 0.0619532 -0.0907775
no 0.0601779 0.0602541 0.0253326 0.16837 0.0464865 0.0294656 -0.159941 -0.112639 0.128215 -0.123185 -0.000235036 0.0392131 0.0430505 -0.0166867 0.182018 0.0263852 0.0623775 -0.0830245 0.122643 -0.0900174 -0.0832026 0.0144583 0.094925 -0.125094 0.0505754 -0.15461 -0.0549587 -0.218617 -0.0581393 -0.00414594 0.0768805 -0.0837717 -0.0964951 0.0226042 -0.159372 -0.0199767 0.0524278 0.177092 -0.124318 -0.0645906 0.039246 -0.00102781 -0.22377 0.155361 0.00501624 -0.0533074 0.161492 -0.129895 -0.127479 -0.117299 -0.221119 -0.193833 -0.0598097 -0.03661 0.11819 -0.075029 0.0368545 0.204265 0.0377608 0.0471746 -0.05959 0.145902 0.0644552 -0.0723167 -0.0433081 0.0502487 -0.132895 0.00896553 -0.14248 -0.191685 -0.120249 -0.214355 -0.0234075 -0.205173 -0.0746067 -0.0299305 0.286338 -0.0404878 0.0225072 0.0259347 -0.208948 -0.0497646 0.217984 0.138676 0.168463 -0.120013 0.054328 0.0291128 0.05929 0.0122649 -0.0376209 0.0445635 -0.0142232 -0.0984327 0.031264 -0.0847452 0.0438639 0.00103545 0.0651535 -0.107016
evidence 0.0364932 0.102056 0.217719 0.0188176 -0.148279 0.0525578 -0.160409 -0.214044 0.147283 -0.220218 0.215133 0.0709573 0.06795 -0.114315 0.05745 -0.0627344 0.210685 0.130621 -0.286585 0.165622 -0.00725839 -0.0878909 -0.0610555 0.0587452 0.109457 0.0804409 -0.0316045 -0.0504979 0.0774091 0.0108137 0.0908228 0.0865072 -0.00934729 0.183039 -0.0546762 0.0936266 0.135675 0.0281642 -0.0819047 0.132976 0.0895292 0.0443402 0.16704 -0.00222051 0.176216 0.0339763 0.167485 0.00974661 -0.0855617 -0.0208826 0.118891 -0.120504 -0.0430234 0.266668 0.0318877 -0.0592036 0.110679 0.188828 0.0304111 -0.0182649 0.127769 0.0778151 0.00186948 0.0100674 0.216526 -0.0998129 0.0414821 0.192664 -0.116761 -0.163835 -0.181686 -0.0243397 0.11939 0.153065 0.0413411 0.0480441 0.181625 0.109004 0.116989 -0.24862 0.00358468 -0.190391 0.261803 -0.0325785 -0.00388056 0.0961388 0.0293342 -0.00245042 -0.153671 0.0964325 -0.000742799 0.273571 0.127221 -0.0663855 0.234952 0.121617 -0.0816991 0.156286 0.280377 0.113489
'' -0.225074 0.0719171 -0.0600717 0.0884001 -0.173198 0.166864 -0.130867 -0.144906 -0.0415563 -0.166575 0.0907664 0.273602 -0.136222 -0.0844363 0.256186 -0.232392 -0.0674169 -0.158421 0.119276 0.137702 -0.0804885 -0.0798864 0.0638084 -0.206791 -0.158278 -0.228707 -0.254655 -0.168121 0.102552 -0.0854947 0.211563 0.193165 -0.251154 0.248657 -0.162995 -0.105447 -0.0692734 0.134068 -0.191737 0.342832 -0.0293472 -0.130049 0.0516904 0.116438 0.0879291 -0.0930064 0.149856 0.0268963 -0.115069 -0.0915545 0.0085953 -0.332284 -0.0378916 -0.0474599 0.219596 -0.194077 0.197159 0.0579416 0.0577322 -0.0149161 -0.171604 0.128645 -0.193941 -0.238818 -0.0563844 0.161627 -0.110191 0.253112 -0.223696 -0.154702 -0.126355 -0.234503 0.0236609 -0.0757761 0.121467 -0.182439 -0.126226 0.135476 0.155249 -0.0976502 -0.235504 -0.0225592 0.226579 -0.0490174 0.0170031 0.0991004 -0.122969 0.0445437 -0.193833 0.148332 0.030853 -0.147616 -0.0996138 -0.298624 0.233315 -0.0432175 0.150527 -0.0873687 -0.0577273 -0.224162
that -0.033799 0.0201279 0.00778517 -0.028511 -0.0590627 0.100511 -0.0799154 -0.125466 0.0139858 -0.167803 -0.0884675 0.109924 -0.128719 -0.112881 0.169611 -0.153121 -0.0264699 0.000893076 0.00983413 0.0679482 -0.0048633 0.10586 0.0871467 -0.238118 -0.0854108 -0.0595277 -0.175219 0.00811704 -0.0186332 -0.207659 -0.112517 0.0232206 -0.0229155 0.130215 -0.0850942 -0.0857795 0.112074 -0.131039 -0.0977985 0.0890119 0.168721 -0.0240013 -0.00143842 -0.0540591 -0.0962781 -0.015372 -0.104694 -0.0026274 -0.118014 0.0560408 -0.138658 -0.162158 0.0533643 0.0195707 0.254892 -0.138287 -0.0320649 0.0934748 -0.00409542 -0.184748 0.0386178 0.0900716 -0.0898127 -0.106493 0.119221 0.0372861 -0.192564 0.0863925 -0.208955 -0.146011 0.0527039 -0.0883457 0.0324354 0.0232668 0.0397422 -0.147552 -0.0425489 0.120802 0.21978 -0.15072 0.0478463 -0.111176 0.117976 0.0425555 0.0551182 0.0249375 -0.183667 0.169791 -0.0617058 -0.000603832 -0.11428 -0.134928 -0.109216 -0.0565633 -0.0135225 0.0171107 0.124035 0.154033 -0.0651519 -0.0221267
any -0.0273292 0.0140617 -0.0309498 -0.022379 -0.140412 -0.00719801 0.0138767 -0.0870725 0.0675368 -0.0203987 0.00226292 0.0427238 -0.0468631 -0.0426088 0.0732147 -0.064654 0.0612751 0.00804765 -0.0468956 0.068644 0.108745 0.0290861 -0.0477355 -0.0882866 0.077096 -0.0679086 -0.156102 -0.0756237 0.0143036 -0.0438916 0.107526 0.0612025 0.0627397 0.17462 -0.0295898 -0.113761 -0.0140285 -0.0704918 -0.0453105 0.225227 0.0481884 -0.107096 -0.0404201 -0.00500605 0.0828436 -0.00244869 0.0413288 -0.0306884 -0.104194 0.0761963 -0.0748788 -0.163934 0.0575495 -0.0511742 0.117512 -0.0316593 0.0868617 0.00048088 -0.0546622 -0.154107 -0.0102504 0.0262489 -0.0205052 -0.0758005 -0.0105977 0.0296655 0.0558608 0.0741134 -0.131027 -0.106551 -0.189434 -0.0894491 -0.0414552 0.0750605 0.0637881 -0.0248849 -0.030042 0.139553 0.122493 -0.102776 -0.0851522 -0.102348 0.0922575 -0.142162 -0.0626516 0.067132 -0.068817 -0.0834344 0.00115801 0.0844865 -0.204273 -0.00810724 0.0851464 0.0077181 0.0625593 -0.0275336 0.087257 0.00827535 0.0472114 -0.151403
irregularities -0.0241177 -0.0603036 0.116223 0.228086 -0.181601 0.204148 -0.000199155 0.0370645 -0.000271695 -0.105693 -0.0265542 0.0525041 -0.14658 -0.18442 0.150311 -0.185903 -0.177505 0.0681001 -0.0173642 -0.114269 -0.0952485 0.0558674 0.192282 -0.227985 -0.00403572 -0.0712352 -0.0173753 0.105633 -0.0211868 -0.0597878 0.00919824 0.183856 -0.147597 0.21002 -0.207464 -0.148523 -0.151417 0.0511873 0.0825217 0.100289 0.0388181 -0.162588 0.0433408 0.0290166 0.00619608 -0.0247812 0.0049763 0.125494 -0.0478787 0.0347402 -0.0313129 -0.235032 0.127768 -0.103461 0.231409 0.026391 0.0236841 0.121055 0.155206 -0.137855 -0.0904974 0.0330826 -0.142436 -0.131392 0.186499 0.0992779 -0.0927345 0.160532 -0.0646458 -0.157045 -0.120218 -0.243846 0.198729 -0.0412758 0.227432 -0.0446405 0.0336431 0.0779822 0.14932 -0.0870168 -0.0397377 -0.0085126 0.178924 -0.143178 0.142686 0.0878138 -0.125165 0.113502 0.0134155 -0.0256138 -0.0323399 -0.129305 -0.123405 -0.181533 0.112905 0.0583794 0.226959 0.052346 0.0357954 -0.0737774
took 0.196885 -0.156057 0.0541713 0.180634 -0.0280571 0.0287395 0.234531 0.161862 0.0497801 0.0189732 -0.0300317 -0.109655 0.0422858 0.0376307 -0.0612593 0.0221971 0.114018 0.0886775 0.0193185 -0.0668459 -0.0958797 0.0882471 0.0618097 0.0876307 0.162497 -0.048687 0.10157 0.125148 -0.116996 0.0491569 -0.205551 -0.122984 0.0148344 0.095438 -0.0993452 -0.0389081 -0.0458409 -0.109145 0.165323 -0.0643761 0.136719 0.087598 0.06436 -0.134562 0.00521905 0.1297 -0.000953609 0.202533 0.0581815 -0.00885037 -0.234204 -0.0709386 0.114922 -0.0234616 -0.0520126 0.0488169 -0.0310096 0.180909 0.0883657 -0.0800414 0.116143 -0.0509787 0.0627518 0.108947 0.0963701 -0.0782972 -0.123466 -0.147238 0.0563259 0.12092 -0.0946944 0.112743 -0.0702296 0.0140057 0.0868838 0.0528881 0.147165 -0.0753359 -0.02604 -0.0249564 0.0245794 -0.262098 0.173316 -0.0275952 -0.103341 -0.0773336 0.0730087 -0.184662 -0.0636892 -0.129678 -0.220263 0.083935 0.0711429 0.0991625 -0.0168874 -0.030678 0.081742 0.214911 -0.0066166 0.0395482
place 0.127115 -0.0631407 0.0975389 -0.0582245 -0.104193 0.0947992 0.137397 0.0346853 -0.114966 -0.0351866 0.0714836 -0.0147103 0.0498643 0.0291537 0.0895066 0.0824289 0.0976853 0.0596101 -0.156203 -0.0739889 0.0818508 0.068076 -0.0408399 0.0830432 -0.083266 -0.0435407 -0.0353867 0.0440405 -0.0709779 0.0110202 -0.038235 0.126318 -0.0389471 0.0570403 0.0625143 0.152191 -0.167569 -0.0625479 0.0110324 0.0245053 0.155774 -0.0598314 0.138348 -0.00895009 0.104879 0.0761809 0.0335084 0.0832728 0.112388 0.103841 -0.030489 -0.129195 -0.0965813 -0.0490466 0.00832021 0.0898412 0.00281377 0.0234816 -0.136562 -0.118495 -0.0334549 0.0420569 -0.0650633 -0.0125789 0.047721 -0.144705 0.0905633 0.148387 0.053411 0.0059095 -0.0797443 0.000260883 -0.0843259 0.0676249 0.00459975 -0.0205438 0.128416 -0.0833779 0.0649644 0.0538022 -0.0483242 -0.161779 0.125607 0.102607 -0.132821 0.0143297 -0.133525 -0.10613 -0.141834 -0.0385788 -0.153037 0.108399 0.0389296 -0.0286471 0.0504106 0.0804826 0.065682 0.0187724 0.209699 -0.0309777
jury 0.137303 0.120129 -0.136747 -0.0133657 0.0439665 -0.139858 0.0346861 0.0479513 0.0656676 0.0104601 0.0502505 0.0171965 -0.0380627 0.00748717 -0.0415708 -0.00231487 0.115752 0.15314 0.0225292 0.0768549 -0.271625 -0.0686003 -0.130967 0.177399 -0.135425 0.00810371 -0.00150129 -0.0455076 0.0260055 -0.196175 0.114616 -0.250135 0.0392072 -0.156373 0.232852 0.059091 0.156231 0.0318139 0.0540074 -0.19126 -0.0964694 0.218234 0.0328262 -0.000731437 -0.0979484 0.218344 -0.1154 0.0654046 0.125209 0.0117269 0.0918666 0.0615752 -0.106339 -0.0279697 -0.0225341 0.0164273 -0.049769 -0.13589 -0.115532 0.100552 -0.124504 0.0198951 0.154452 -0.113228 -0.179464 -0.244903 -0.183507 -0.0091738 0.0153564 0.110732 0.0909321 0.144058 -0.137866 0.0279903 -0.154261 0.0589022 0.0565635 -0.160645 -0.0220914 0.131076 -0.103303 -0.0184908 -0.0308174 0.128244 -0.139956 -0.079709 0.14919 -0.252124 -0.0314642 -0.158897 0.167382 0.0411701 0.00311902 0.0744051 -0.103794 -0.050442 -0.123764 0.108752 -0.0494562 0.145967
further -0.0163217 -0.0842314 0.0540327 0.0340047 0.0559543 0.108662 0.156112 -0.165157 0.0312544 0.183184 -0.0153757 -0.0717503 0.0181676 -0.0596617 0.0255863 0.103638 -0.0196883 0.0598189 0.0112998 -0.0196661 0.1123 -0.109788 0.106385 -0.0418088 0.0820696 0.106175 0.121192 0.183846 0.0437231 0.0850758 0.0354072 -0.0723129 0.00297797 -0.0739539 0.0389725 0.0559513 -0.0584408 -0.0601718 -0.0461052 -0.11373 0.0124658 0.0666976 0.0236597 0.019958 0.106342 0.0173251 -0.016987 -0.101091 0.21113 0.0107776 -0.0242909 -0.00925273 -0.0655689 -0.034856 -0.0488468 -0.0577256 -0.0224763 -0.0187036 -0.0577085 0.0643031 0.0515119 0.0379234 0.144868 0.0952652 -0.193029 -0.0923207 -0.072546 0.105257 0.0604391 0.103876 -0.00544557 0.0502561 0.105842 0.0611676 -0.0248493 0.092867 0.00895935 -0.188474 -0.00641934 0.150471 0.0185246 -0.0896917 -0.0489834 -0.0632882 -0.12881 0.00767437 0.0239435 -0.080358 0.119889 -0.0296827 0.0793564 0.0394718 -0.115642 0.0551768 0.0238187 0.0387114 0.0393929 0.0490389 -0.0518766 0.124986
in -0.0202941 -0.188823 -0.151556 -0.062589 0.0225108 0.0899604 -0.0960434 -0.0190891 -0.0737757 -0.275645 0.0169035 0.0900744 0.0798823 -0.0100862 -0.081998 -0.169928 0.0695039 -0.0744002 0.090783 0.147795 -0.0959116 0.017568 0.125149 0.0820823 -0.110761 -0.101038 -0.317173 -0.217916 0.155878 -0.102644 0.0422888 0.0851117 -0.160504 -0.122958 0.0194625 0.0085477 0.163716 -0.0656445 -0.154704 0.164794 -0.0266931 0.0591836 0.0540677 0.0872099 -0.182952 0.0206042 -0.152694 0.170248 -0.145522 -0.0832254 -0.148847 -0.139527 0.0559608 0.0948256 0.0487989 -0.0213927 -0.0929734 -0.061263 0.0687907 0.0429829 0.0708971 0.0964147 -0.00783646 -0.0910287 0.102438 0.112913 -0.0740934 -0.0667458 -0.180282 0.00510548 -0.0799321 -0.140077 -0.105936 -0.105725 -0.0341639 -0.182588 -0.150979 -0.0241097 0.175919 -0.0950964 0.0219467 0.0545638 -0.0854609 0.0163986 0.0630497 0.114925 -0.0900696 0.0620943 -0.0259529 0.210133 -0.0763123 -0.118574 0.0367139 -0.0950401 0.107945 -0.0364662 0.166322 -0.0486554 -0.0335385 -0.166852
term-end -0.0676691 0.103875 -0.0274892 -0.145544 -0.0840716 0.0594269 0.0735127 -0.214893 -0.069196 0.0777799 0.00420793 0.0890781 0.0187083 0.0385054 0.0228588 0.0446471 0.0302445 -0.0272749 -0.123396 0.0939756 -0.01668 0.0853008 -0.0188649 -0.0615796 0.0597742 -0.0108146 0.00738171 0.175076 0.110973 -0.0851628 0.127694 -0.122801 0.0633722 -0.150065 0.0124259 0.0778464 0.137504 0.151613 -0.203359 -0.0448448 0.117888 0.0957243 0.0886844 -0.0872451 0.0706316 -0.024306 0.156915 -0.0719647 0.158074 0.106523 0.0505231 0.0213416 -0.0959273 0.143818 -0.120563 -0.0558222 0.0153801 0.0870162 -0.0438498 0.08227 0.0067379 0.238522 0.166854 -0.10382 0.0123518 -0.00947268 -0.0241855 0.109043 0.10187 0.0334534 -0.0767355 0.102091 0.102188 0.0881701 -0.171631 0.119137 0.105402 -0.200581 -0.0234732 0.0324199 -0.0842765 -0.0622881 0.0894369 0.151169 -0.143831 0.0148426 0.00755139 -0.211463 0.0471307 0.0593843 0.148423 0.112837 0.0410048 0.08839 -0.028562 0.125616 0.0485863 0.21721 0.146653 0.118397
presentments 0.0419457 -0.0439098 -0.0295278 0.0621488 -0.0925744 -0.0800835 0.0946327 -0.0247896 -0.0626386 0.0619182 -0.130152 -0.0282304 0.00572751 -0.0574149 0.0133294 -0.0826436 0.04978 -0.0630268 -0.0578339 0.0992006 0.0727827 0.00738156 0.045471 -0.0359818 -0.0675466 -0.0373452 0.00503933 0.090633 0.0711177 0.031208 -0.0219189 0.107863 0.0130128 0.0316658 0.0624006 -0.130084 -0.0333661 0.0142032 -0.0202155 -0.00540196 -0.0320008 -0.0560285 0.0932907 -0.0310603 -0.0126999 -0.122082 -0.058832 0.0105943 0.0696244 -0.0108595 -0.116928 -0.0700576 0.0437738 -0.0406041 0.0921178 0.0230317 0.0324445 -0.067968 0.0879551 0.0837503 -0.0507596 -0.0104065 0.0483481 -0.092702 0.0697193 0.00425643 -0.03896 -0.0520213 -0.0390837 -0.0269081 0.0231099 -0.121204 0.0116486 0.023201 -0.0984019 -0.0460633 -0.0157644 0.0416785 0.0958211 0.00457701 -0.0367191 -0.00993957 0.0797497 0.0783177 0.0893787 0.0103662 -0.0415204 -0.064365 -0.115131 0.0487525 -0.0483022 -0.0130314 0.0314134 -0.0679514 -0.0313162 0.0360453 0.136668 0.0548446 0.0282299 -0.0613574
the -0.213679 0.172812 0.0126293 0.0811623 -0.242221 0.248167 -0.216385 -0.0292286 0.122539 -0.196383 0.100088 0.0900289 -0.203495 -0.0699677 0.156631 -0.206842 -0.0884665 -0.267525 0.263672 -0.0661099 -0.230788 -0.277162 0.0629906 -0.110345 -0.0459039 -0.32039 0.0296666 -0.162227 0.0277244 -0.101095 0.202162 -0.0131994 -0.124235 0.200967 -0.144882 -0.192147 -0.108219 0.129895 -0.20963 0.217764 -0.0832997 -0.237986 -0.139896 0.270329 -0.0379553 -0.155693 -0.100388 -0.108315 -0.278016 -0.140559 -0.00447582 -0.132576 0.23236 -0.0958141 0.198098 -0.051513 0.138799 -0.17844 0.245441 0.112754 -0.119104 0.023697 -0.167123 0.0283025 -0.104911 0.0189155 -0.152289 0.0482322 -0.191977 -0.146973 0.0970684 -0.151966 0.105168 -0.210926 0.0805225 -0.0152762 -0.0741883 0.031041 -0.0269503 -0.122858 -0.171305 0.207787 0.0948501 -0.036117 0.117752 0.0466271 -0.242768 0.163783 0.144294 -0.00636437 0.192558 -0.298462 -0.239671 -0.259475 0.175819 -0.224308 0.2575 -0.0272227 -0.198085 -0.185471
City -0.102386 0.100953 -0.0907559 0.0527407 0.0232783 0.135337 -0.0952425 -0.0448165 -0.0241958 -0.177999 0.0237795 0.158384 -0.016787 -0.162566 0.238264 -0.229367 -0.0508617 -0.129903 -0.0125601 0.137676 0.186163 -0.10731 0.174771 -0.182621 0.00303709 -0.111199 -0.0962797 -0.012865 0.206795 -0.135529 0.129739 0.0100973 -0.0854768 0.0789144 -0.164809 -0.115196 0.0786015 -0.0557336 -0.228317 0.184161 0.0686925 -0.116981 -0.0250649 0.131618 0.148875 -0.170188 -0.0228679 0.125196 -0.15623 -0.119555 -0.110925 -0.136732 0.0815427 0.24351 0.148662 -0.0689995 -0.091466 0.127323 0.145974 -0.0319976 0.149122 0.0620602 -0.070729 -0.0139537 0.0745993 0.127326 -0.0985431 0.119207 -0.237879 -0.0368473 -0.051958 -0.0994404 0.159297 -0.127976 0.0629894 -0.0651329 -0.00618056 0.0897083 0.100725 -0.2202 0.0204103 -0.168268 0.0716303 -0.0249463 0.0212706 0.119577 -0.0866494 0.185781 -0.0314514 0.0124582 0.171241 -0.155483 -0.0230401 -0.188164 0.0783279 0.126674 0.243647 0.213701 -0.0165034 0.0477082
Executive 0.065909 0.0492722 -0.0618817 0.162414 -0.083426 0.025881 -0.00733576 -0.0430925 0.109305 0.0864957 -0.0779967 0.0589363 0.00134212 -0.0503 0.0760484 -0.102425 -0.0240087 -0.00775153 0.0612256 0.086402 -0.0200635 -0.0925717 0.105642 -0.0661076 0.194921 -0.0235487 0.159926 0.131055 0.0947238 0.045206 0.0104071 -0.00248152 0.0774364 0.000911455 -0.0885222 -0.0654859 0.13224 0.0665341 -0.0889208 -0.0508001 0.0762917 0.0913487 -0.04952 0.00969726 0.0520074 0.00200182 0.112191 -0.0190191 0.0457136 -0.0221278 -0.0836871 0.0389114 -0.0077582 0.128193 0.106769 -0.0205371 -0.0856799 0.0677001 0.122586 0.0170487 0.0355783 -0.0815191 0.120381 0.174086 0.0422916 -0.0623238 -0.116257 -0.0481383 0.0215777 0.0243341 0.00583638 0.152346 0.115111 0.0387564 -0.00811552 0.0387821 0.159401 -0.0389708 0.00909753 -0.039491 0.168713 -0.184077 0.0980303 -0.0648451 0.00211018 0.0201651 0.0355186 -0.079329 -0.0486325 0.0113595 0.044314 0.100259 -0.0411756 0.0311513 -0.0378881 -0.0713638 -0.0294973 0.201453 -0.12176 0.123644
Committee 0.13053 0.0576163 0.0520254 -0.0575992 -0.146311 -0.0983029 -0.00836556 0.122902 -0.102471 0.158003 0.243474 -0.209748 0.0250531 0.0116095 -0.0979352 0.0566368 -0.0264466 0.174036 -0.000630894 0.112842 -0.17842 -0.00432496 0.0199894 0.0308334 -0.131766 0.0997447 0.0468692 0.125683 0.152593 0.021379 0.177764 -0.0318262 -0.10981 -0.0221375 0.0514262 0.00441351 0.101658 -0.00428704 0.0677281 -0.104361 -0.218522 0.11713 0.0288724 -0.167259 -0.155256 0.189035 0.00411999 0.19682 0.052325 0.141273 0.177931 0.125226 0.0140623 0.0330695 0.0383946 0.121571 -0.108151 0.210156 -0.176452 0.0999037 0.106168 -0.196862 0.232678 0.110629 -0.00664153 -0.182741 0.157442 0.020115 0.00573379 -0.048763 -0.19429 -0.0186309 0.0844892 0.0798413 -0.0524885 -0.018597 -0.0847007 -0.110784 0.0012372 -0.0273495 -0.114855 -0.14576 -0.0322285 -0.06644 0.087758 0.0869748 0.0640258 -0.14379 -0.162387 0.0608343 -0.00406208 0.142902 -0.0211238 0.229138 -0.20896 0.00216498 -0.10982 0.19406 -0.0638358 0.159865
, 0.0916889 -0.0709216 0.00911709 0.0149659 -0.0797297 0.0293837 -0.154154 -0.0880991 0.195319 -0.077415 -0.0214515 -0.0875107 -0.00153966 -0.0944362 0.0882131 -0.0706546 0.0199531 0.129234 0.0775028 -0.00858874 -0.0488476 -0.115655 0.0496935 0.10603 0.012512 -0.0774056 -0.138434 -0.0800458 0.0880869 -0.0429184 0.0919152 -0.0315416 0.0289253 -0.0128194 0.0130885 -0.165325 0.0672716 0.0296663 -0.0778269 0.0727208 -0.0563976 0.0388208 -0.0712899 0.0792943 -0.182655 0.0100339 0.0583267 0.0166441 -0.100128 -0.084663 -0.0386777 -0.0716965 0.101695 0.113897 -0.000854296 0.0270433 -0.0707848 0.140551 0.0191396 0.0882209 0.0856623 0.0286764 0.0676064 0.0538602 -0.0446912 -0.160097 0.00369735 0.0421713 -0.11983 -0.0397361 -0.112423 -0.106615 0.0662293 0.0646787 0.126971 -0.155975 -0.0578058 0.053248 0.189112 -0.0816976 -0.0116498 -0.0518853 -0.0390667 -0.197133 0.0798829 0.0278372 0.0478017 -0.0326663 0.118905 0.110531 -0.106578 0.0262753 -0.0790653 0.118008 -0.0526228 -0.108562 0.0994993 0.00785936 -0.139825 0.0328695
which -0.203431 -0.0236328 -0.033126 0.17827 -0.121101 0.157958 -0.0970171 -0.132063 0.166163 0.176037 0.0445638 0.232229 -0.0833348 -0.000282537 0.204614 -0.177239 -0.0287339 -0.12392 0.118889 0.0896851 0.0147425 -0.1402 -0.0323416 -0.0557372 0.0537463 -0.0622242 0.051245 -0.128111 0.15499 0.0512484 0.0270975 0.000956861 -0.183013 -0.00674374 -0.060411 -0.107547 -0.0809108 0.146673 -0.0772332 0.15512 0.105774 0.0103849 -0.0873666 0.140302 0.0417085 -0.0748052 0.0770229 -0.0817355 0.00837646 -0.10451 0.0244859 -0.0514236 0.106839 0.0354959 0.239402 -0.165057 0.0630756 -0.176513 0.0959725 0.108898 -0.133436 -0.0117338 0.10246 0.0979736 -0.125985 0.133326 -0.0970066 0.0759947 -0.0834138 0.00515219 0.170742 -0.0848681 0.120602 -0.0963481 -0.0199678 -0.142088 -0.0535768 -0.109282 0.101381 0.107607 0.109422 0.103674 0.105413 -0.0202927 0.0285919 0.0911586 -0.104214 0.0738098 0.0436098 0.129387 0.149339 -0.0701943 -0.0607997 -0.182037 0.116036 -0.130918 0.0527751 -0.0338995 -0.215463 -0.0669656
had -0.0141377 -0.0973327 -0.0545196 -0.169276 0.15394 -0.177138 0.116939 0.126245 0.0452208 0.0626274 -0.0176279 0.0408039 -0.148024 0.154251 -0.0618206 0.113543 0.0124458 0.0109634 -0.0452246 0.069077 -0.0722593 0.208833 -0.171563 0.197515 -0.139564 0.0423519 -0.0236758 -0.08557 -0.180145 -0.00866599 -0.170817 -0.211885 0.165376 -0.175987 0.10264 0.0938775 0.0430356 0.0615196 0.15112 -0.00171145 -0.0297419 0.0263382 0.0693094 -0.132917 -0.0140085 0.0275041 0.0196369 0.0616208 0.0853775 -0.0958823 -0.00306401 0.107036 -0.109133 -0.0760357 -0.195159 -0.0858189 0.0865741 -0.201136 -0.0783801 -0.088423 0.050744 0.0355042 0.0169475 -0.0973846 -0.146133 -0.131183 -0.00319954 -0.19871 0.172218 0.0335281 -0.0341805 -3.3266e-05 -0.148741 0.0836142 0.0467478 -0.136813 -0.0757501 0.0654419 -0.0513796 0.0251938 0.0469679 0.10605 -0.129712 -0.0613114 -0.177206 -0.0158269 0.0846105 -0.139269 0.156435 -0.0759215 -0.0276734 0.0268506 -0.120284 0.0907226 -0.0205022 0.14218 -0.108495 -0.0662595 -0.17319 -0.125437
over-all -0.0335726 0.0710337 0.045432 -0.105058 -0.128243 -0.0653227 -0.128554 0.0807693 0.0206882 0.114393 0.163714 -0.0904081 -0.0819107 0.0669794 -0.0716967 0.14998 -0.0631531 0.0897485 0.0721506 -0.108985 -0.189849 0.133349 -0.161024 0.059754 -0.209797 0.00319746 0.0561168 -0.0720875 -0.121755 -0.110413 0.112177 -0.131728 -0.0436173 0.0826422 0.0924618 0.217859 -0.119415 -0.035703 0.156934 -0.108557 -0.123819 -0.0353089 0.0237614 0.0545886 -0.00857477 0.209068 -0.162867 0.0816106 -0.0595649 -0.00250469 0.0449348 0.00225947 -0.0810988 -0.00526936 -0.0489176 0.160544 -0.0871303 0.0493013 0.0541937 0.0992854 0.109135 -0.149101 -0.0221947 0.0406967 -0.0629571 -0.0508953 0.149523 -0.0146773 0.0893907 -0.147689 -0.0156118 -0.02576 -0.0871731 0.00440582 0.0375983 0.0203044 -0.0326723 -0.0188971 -0.145659 -0.0368557 -0.172404 0.0532732 -0.0477632 -0.0322589 -0.0401125 0.0745604 0.0813646 0.0780047 0.0192624 -0.196644 -0.0060635 -0.000814806 -0.0623513 0.10584 -0.162064 0.0800692 -0.0361817 0.00352711 -0.00618897 -0.0909628
charge -0.00577867 -0.0623329 0.0074964 -0.155439 0.0900013 -0.167164 -0.0508475 0.0709914 -0.13444 0.00196589 -0.0122558 -0.0223251 0.0983393 0.0145422 -0.182924 0.159113 0.0572082 -0.052487 -0.00412025 -0.029797 0.125346 0.0493998 -0.148894 0.119459 -0.067733 0.168016 -0.0436236 -0.0131829 -0.147038 0.191417 -0.128725 0.0016287 0.031913 -0.0322007 0.121784 0.0257667 -0.0514593 -0.0776741 0.150662 -0.127917 0.084826 0.0244031 -0.00158658 -0.145554 0.128182 0.0278567 -0.0792681 0.0604872 0.125831 0.0738979 -0.130336 0.0113721 0.124809 0.00555694 -0.0985172 0.122226 -0.0952944 -0.0466697 0.0691888 0.00573665 0.169576 -0.0634261 0.00948585 0.0547836 0.133533 0.0323801 0.222229 -0.0176654 0.0964717 0.01258 0.190931 0.0180023 -0.0809716 0.035998 -0.0576186 0.0803371 0.0697257 -0.00885996 0.0470461 0.115724 0.0141494 -0.0348821 -0.169011 0.189768 0.0125278 -0.0341609 -0.0993084 0.0176209 0.00481368 -0.0303833 -0.167551 0.0740335 -0.0784413 0.129758 -0.109602 -0.0936098 0.0777359 -0.0946228 -0.00356327 -0.089502
deserves 0.0751524 0.0398978 0.0909726 0.0334042 -0.142954 -0.00156926 -0.0196582 0.0942478 0.115003 -0.0436676 0.165547 -0.0404569 0.0213454 -0.292865 -0.108643 -0.049094 -0.0343955 0.172546 -0.0263859 -0.0792685 0.00301286 0.0524557 0.104317 0.0216599 -0.181328 0.137551 -0.131519 -0.0858743 -0.010182 0.00141727 0.138993 0.125245 -0.283579 -0.101785 -0.0159788 0.0479067 0.165644 -0.100399 0.126737 -0.0861208 -0.0546932 0.188133 -0.059879 0.168859 -0.167276 0.121825 -0.0359366 0.249743 0.0593556 -0.0508451 0.0609831 0.0873482 -0.0683178 0.0814253 -0.0217566 0.12346 -0.137511 0.0691781 0.0507113 0.315697 0.195884 -0.0484513 -0.222123 -0.0935562 -0.0602261 -0.0634702 -0.168924 0.173553 -0.154627 -0.149011 -0.0614545 -0.114233 0.303274 -0.217699 0.0152142 0.148142 0.059404 0.233871 9.5605e-05 0.0183698 -0.112013 0.0873849 -0.0413077 -0.0030475 -0.0560417 0.261822 0.115819 -0.00520865 -0.177483 -0.112629 0.0965575 0.14079 0.141366 -0.0994959 0.0899684 0.161835 0.193086 0.111011 -0.110861 0.0897275
praise 0.0803611 0.015436 -0.0695644 0.180234 -0.101777 0.150899 -0.0410727 -0.0504212 -0.0630595 -0.114925 -0.0181662 -0.0789131 0.10986 -0.0801935 -0.00674417 0.0641888 -0.0324333 -0.104913 0.109861 -0.107902 0.00058431 -0.127359 0.0131652 0.0861279 0.111671 0.0234036 0.0652382 0.150688 -0.0375708 0.0869442 0.0723788 -0.0337588 -0.099181 0.0749119 -0.0890062 -0.0428974 0.0808911 -0.0427323 -0.121046 -0.0911381 0.151659 -0.0159227 -0.0426222 0.115695 0.070573 -0.123708 -0.0224527 -0.00245789 -0.149261 -0.0180402 0.00594764 0.0155373 0.185526 0.00904965 0.0211464 0.00257603 -0.0497191 0.0318879 0.148337 0.000247264 0.19492 -0.0150244 0.053826 0.204598 0.0161594 -0.00643604 -0.0136146 0.028373 -0.0918684 -0.0419945 0.116801 0.0696964 0.109185 -0.193494 -0.102453 0.0764985 0.143898 -0.089663 -0.0468643 0.117477 -0.0662417 -0.0934761 0.0703959 0.204434 -0.0305634 0.00354897 -0.0676527 -0.0130158 0.0464862 -0.0924942 0.0816592 -0.126342 -0.0602704 -0.0956546 0.0177222 -0.133665 0.132618 0.157536 -0.103129 0.101742
and -0.051292 0.0182963 -0.0990404 0.0254542 -0.0723628 -0.0726915 -0.0780106 0.0892429 -0.0163656 -0.0211355 0.133703 0.0204034 -0.0747652 -0.03056 -0.15172 0.0972512 -0.0744512 -0.133138 0.0712587 0.071643 -0.0603817 0.102782 0.0262559 -0.0301284 -0.158251 0.143718 0.0617078 0.0391231 -0.0428188 0.0289037 -0.0268847 -0.132626 -0.0807225 0.0183693 -0.10974 0.0818969 0.0557941 0.0190427 0.0150005 -0.110319 0.0125689 0.171058 -0.113126 0.091635 0.149677 0.0178672 -0.0698072 0.0365009 -0.178134 0.0392127 -0.0593886 0.113986 -0.0487705 -0.0429466 -0.00237066 0.130126 0.0445952 0.0113508 0.063333 0.162648 0.230811 0.00112897 -0.0322477 0.0822272 0.0031013 0.0828289 0.0125128 0.00980194 -0.0489198 -0.0707042 0.151967 0.0549893 0.0676314 -0.0671175 -0.0529343 0.0998553 0.0132063 0.0134849 -0.145425 0.0360512 0.0227274 0.0902487 -0.0191661 0.185558 -0.0369016 0.0717402 -0.00546731 0.0572929 -0.126052 -0.117577 0.122571 0.0325666 -0.0244739 0.0155465 -0.00106597 -0.094354 -0.0505203 0.0811897 -0.109728 -0.0945567
thanks 0.0170881 0.190024 0.145941 -0.0297959 -0.125174 -0.0688743 -0.130955 0.094502 0.100255 0.00793244 0.10959 -0.0495321 -0.0304599 -0.0369292 -0.0870428 0.00662969 -0.0220288 0.110701 -0.0453208 -0.169363 -0.0909016 0.0018733 -0.0608542 -0.0871815 -0.088577 0.0649978 0.178672 -0.056364 -0.0492908 -0.0582612 0.221474 -0.0163933 -0.0619545 0.172963 -0.124966 0.138572 -0.06917 -0.0492512 0.101311 -0.147325 -0.13606 0.133666 -0.132821 -0.00867612 0.132153 0.0686555 -0.019974 -0.0367509 -0.060918 0.0517389 0.124693 0.1197 -0.00631705 0.0348865 -0.0548982 0.257608 0.0597784 0.173081 0.0324656 0.127 0.116622 -0.118799 -0.021743 0.033683 0.08542 0.0408649 0.181264 0.136181 0.0408359 -0.105459 -0.0336534 0.0639217 0.0641533 -0.0480376 0.0386525 0.10527 0.151257 -0.130652 -0.207136 -0.0194688 -0.158491 -0.0343994 0.101533 0.0885406 0.00452725 0.0678806 0.0994815 0.0921559 0.00576192 -0.162937 0.0695149 0.191174 0.0332711 0.0110726 -0.155118 -0.115598 -0.0420045 -0.160908 -0.000584333 0.044801
Atlanta 0.0864647 -0.0269775 -0.069592 0.108936 -0.0225674 0.00164848 0.137123 0.129123 0.128194 -0.0601169 -0.023687 -0.170901 0.119513 0.0752501 -0.10908 -0.00132931 -0.0398031 -0.0159925 0.0654035 -0.0436722 0.0703897 0.0328848 0.0423645 0.151872 0.0760451 -0.0543662 -0.0381334 0.0483848 0.0767545 -0.10196 -0.0245125 -0.0849039 0.0581418 -0.045709 -0.00326857 -0.0477988 0.103491 0.0252641 0.0469998 -0.0844128 0.00463003 0.141135 0.0631694 -0.105802 -0.16784 0.0645493 -0.00649221 -0.042326 0.00472714 -0.00660434 -0.0968212 -0.00589852 -0.106421 -0.175815 -0.0366043 -0.123226 -0.0451981 0.158749 -0.0817349 -0.0303638 0.0522393 0.0324379 0.094366 0.07652 0.0597897 -0.160299 -0.0386628 -0.154334 -0.013632 0.122385 -0.0624683 0.0583362 -0.0115568 0.0900079 0.079145 0.0691971 -0.00652355 -0.0101379 0.0359089 -0.064217 0.102237 -0.0499409 0.138433 -0.195582 0.0673488 -0.179719 -0.0710969 -0.11836 0.202599 0.0100244 -0.118536 0.0230547 0.0990553 0.158669 -0.201361 -0.157908 -0.0160646 0.101841 -0.119264 0.142863
for -0.061664 0.0664575 0.0695046 0.172357 -0.00139043 0.0510038 -0.00465037 -0.00571784 0.145156 -0.1594 -0.0483513 0.0326805 -0.1296 0.0635333 0.0683564 0.0513834 -0.0141645 0.0532607 0.0971496 -0.0823653 0.0398115 -0.0311483 -0.0014674 -0.0501766 0.176499 -0.0565437 -0.00594517 -0.0503526 -0.084737 0.0818419 0.0369085 -0.0267311 -0.0912087 0.0728873 -0.111101 0.0833562 -0.0228205 0.0905604 0.0460577 -0.0438046 0.041285 -0.00634491 -0.110061 0.165733 0.0679785 0.0356337 0.060116 0.105295 0.00219229 -0.0373513 0.0359594 -0.0641369 0.109074 0.0824301 0.0469768 -0.0658218 -0.0592874 0.110544 0.149066 -0.0124797 0.0815207 0.0154185 -0.179809 0.145086 0.0149943 0.114561 -0.0488156 -0.0754807 -0.0946004 0.0440204 0.0783619 -0.0351347 0.000275184 -0.0243932 0.155715 -0.00632231 0.175699 0.0748439 0.00630669 -0.0317087 0.123525 -0.151015 0.0504473 -0.0794653 -0.063272 0.0544338 -0.0545818 0.112162 0.107506 -0.0451255 0.0206767 -0.025186 -0.112332 -0.122238 0.14192 -0.111482 -0.0124064 0.0619472 -0.132127 0.0282088
manner 0.0117511 0.0291803 -0.0695235 -0.10373 0.0234329 -0.107359 0.0655996 0.162992 -0.0318661 0.102972 0.0255558 -0.189184 -0.0408729 0.0384338 -0.145743 0.0994309 0.0332412 -0.0124907 0.0875668 0.0880927 0.0424332 -0.023695 -0.104261 0.0973701 -0.101128 0.110835 -0.00500229 0.0630788 0.0573928 0.0505196 0.155387 0.130572 0.0508069 -0.0143625 0.0488664 0.0420244 0.0118606 -0.0341165 0.183684 -0.0131348 -0.106754 0.11743 0.0308993 -0.00955706 0.0503699 -0.0590002 -0.158564 0.112098 -0.0447925 0.102733 0.0038037 0.112832 -0.0265582 -0.0880067 -0.071707 0.155512 0.00313875 0.0235278 -0.0671381 0.0662428 0.0479298 -0.186515 -0.0132861 0.0682545 -0.156176 -0.116864 0.210706 -0.0955078 0.0911791 0.0624218 0.0196765 0.0258108 -0.0319725 -0.0172658 -0.0205047 0.0225576 -0.127961 0.0681102 -0.0586408 0.138652 -0.0972557 -0.0499173 -0.110234 -0.0231 -0.0775333 0.0695705 -0.0230839 -0.0971523 -0.0601362 -0.155014 -0.123605 0.0801646 0.0295936 0.141811 -0.125759 -0.0843186 0.0638478 0.0972294 -0.180089 -0.0209537
was -0.0731263 -0.103402 -0.0466495 -0.112874 0.0660252 -0.109575 0.0278858 0.0130613 -0.193549 0.213848 0.137923 0.032623 0.040241 0.094435 -0.0979889 0.15714 0.0261311 -0.104567 0.179904 0.0915302 -0.0167094 0.0562981 -0.130429 0.0145066 -0.0378925 0.167216 -0.0264395 -0.00430611 -0.116258 0.090032 -0.0409292 0.138019 -0.0627656 -0.0697584 0.102306 -0.0476594 -0.0192808 0.0869783 0.137526 -0.0820724 -0.0315186 0.123359 0.010317 -0.0882649 0.00372335 0.0992615 0.0872749 0.165595 -0.0128791 0.0502429 0.0814575 0.157666 0.0191738 0.0335745 0.00690236 0.0302966 -0.0470037 0.0350828 -0.0973491 0.144015 -0.0283169 0.0103277 0.157537 0.0371234 -0.01433 0.123971 0.149333 -0.0151363 0.130343 -0.0455425 0.0905341 -0.0168792 0.0136759 -0.0907043 -0.222162 -0.110495 -0.124094 -0.0967751 -0.0839136 0.207084 -0.0569041 0.107265 -0.211621 0.107771 0.0883901 0.0314574 -0.0573454 -0.0434554 -0.126188 0.102559 0.0240155 0.0729729 0.0257574 0.0171403 -0.050765 -0.141918 0.0571002 -0.110113 -0.107227 -0.194434
conducted 0.0257517 0.0447096 -0.0489971 -0.0268707 -0.0428812 0.0418398 -0.0128539 -0.00452717 -0.0751127 -0.0359055 0.00038936 -0.0929729 0.157175 0.121278 0.0648286 -0.0188455 0.127783 -0.111524 0.0649179 -0.0964112 0.0193339 -0.108706 -0.0745757 0.018494 0.141727 0.0348216 0.00270289 0.041143 -0.0673601 -0.024641 -0.0479848 -0.0406428 0.0164315 0.0489208 0.0786769 -0.142758 -0.0490933 -0.0835867 0.0889863 -0.0723624 0.041779 0.0229813 0.0916037 0.038938 0.0369327 -0.050848 -0.0939785 0.11304 -0.0536681 -0.0814899 -0.0352069 8.15596e-05 0.136158 0.026532 0.00138753 -0.0687046 -0.0581349 -0.0920745 -0.0305305 -0.103669 -0.072918 0.00564555 0.140946 0.0536577 0.0297883 -0.112954 -0.087789 -0.153113 0.0840519 0.12166 0.0656107 0.173387 -0.0864757 -0.0949747 -0.0664781 0.0268237 0.112873 -0.0538066 -0.0624069 0.0807824 -0.0736164 -0.10054 -0.0407452 0.0761829 -0.0830957 -0.11717 -0.0548931 -0.0564009 0.0332956 0.00203641 0.0273221 -0.0909019 0.0606231 -0.0210537 0.0662588 -0.0373071 0.0119661 0.014376 -0.0708847 0.0333141
September-October 0.234369 -0.143234 0.00843928 0.0609082 -0.0260742 -0.123063 0.197771 0.0621957 -0.118295 0.136825 -0.140276 -0.131931 -0.014969 0.11324 -0.193812 0.143844 0.0507481 0.136144 -0.105378 -0.108758 0.0195064 0.16977 -0.0685343 0.10603 -0.0536357 0.0145094 0.0502754 -0.015862 -0.0563344 0.192325 -0.0996256 -0.168212 0.108559 -0.0254267 0.186508 0.120634 -0.155888 0.057521 0.172561 -0.255013 0.0790766 0.153532 -0.140572 -0.0533213 0.04793 0.0228081 -0.0944395 0.0706788 0.198731 0.227482 0.0891949 -0.0203093 -0.0344925 -0.0947031 -0.0151841 0.136084 0.0179877 -0.0855703 -0.175666 -0.216226 -0.0768341 -0.02132 0.101668 0.144397 0.0427465 -0.147226 0.066248 0.0246426 -0.0437013 0.0274817 0.0622175 0.00869578 -0.118818 0.149867 0.143089 -0.0397785 0.0293674 -0.170829 0.0795033 0.121989 0.0406461 -0.173561 0.00423191 0.134538 -0.0212437 -0.0440966 -0.0434462 -0.15805 0.0565262 0.00851726 0.151865 -0.0384573 -0.125334 0.208087 -0.130797 0.00708636 -0.00802242 -0.0194084 0.00300475 0.173383
term 0.229332 -0.0720136 -0.0657986 0.0932282 0.163839 -0.304801 0.0245879 -0.0859381 0.0907126 0.153303 -0.153399 -0.103257 0.043199 0.133295 -0.137765 0.268813 0.096307 0.119538 0.0433403 -0.0140898 0.0358666 0.19644 -0.176316 0.264966 0.146892 0.221051 0.0756645 -0.0686431 -0.18296 0.107372 -0.188093 -0.180079 0.221642 -0.285108 0.298329 0.0904767 0.153219 0.0596332 0.142432 -0.194265 0.0832895 0.18357 -0.0680291 -0.136226 -0.15234 0.0825912 -0.0681946 0.0526949 0.126835 0.0174217 -0.0864682 0.117441 0.0284388 -0.0946997 -0.0649243 -0.11464 -0.151499 -0.104498 -0.0501708 -0.129453 0.0591035 -0.0226759 0.186116 0.144002 -0.262274 -0.256627 -0.0784287 -0.224254 0.154978 0.236752 0.0777408 0.158822 -0.149139 0.119269 -0.19323 -0.16177 0.100237 -0.125892 0.0254127 0.242193 0.160813 -0.132346 -0.19664 -0.0337192 -0.18523 -0.312772 0.12886 -0.209834 0.0989353 0.0763811 -0.171329 -0.124597 0.0340885 0.219386 -0.0836873 -0.0205986 -0.156312 0.0478754 -0.202848 0.142693
been 0.06893 0.0677703 -0.160346 0.00248099 0.154353 0.00639577 0.126499 0.0782416 0.0925695 0.0559816 -0.101483 -0.0841456 -0.18228 0.0333106 -0.169582 0.0543943 -0.0154023 0.192769 0.0408311 0.0865338 -0.116732 -0.0365382 0.00567298 0.0636343 -0.00738624 -0.0809692 0.0922676 0.0297128 -0.19259 -0.0851079 -0.112519 -0.20764 0.143759 -0.169652 0.0560514 0.163222 0.202295 0.0619257 0.0852977 -0.186618 -0.0578487 0.0820415 -0.219759 0.104261 -0.0331847 0.0450223 -0.154666 0.0413834 0.12813 -0.00203426 -0.0458526 0.00034653 -0.0082923 -0.173994 -0.165912 0.0545747 -0.0772568 -0.0798404 0.0407648 0.108044 0.0361525 -0.00140914 -0.00780075 0.103725 0.0532563 -0.147143 -0.110983 -0.0835967 0.112179 0.146471 -0.0705438 0.0303035 -0.0467381 0.0131037 0.084499 0.0881572 0.150564 0.0273408 0.0997909 -0.044275 0.0591385 -0.0654395 0.0476895 0.0727582 -0.16406 -0.13185 0.100333 0.0131249 0.0774244 -0.128742 -0.0700057 -0.07707 -0.134336 0.131672 -0.167164 0.088778 -0.0995709 0.0632184 -0.0430737 0.0636335
charged 0.0786664 -0.162794 -0.0903956 0.0611747 0.090908 -0.0735385 0.225191 0.154451 0.0513601 -0.0532587 0.0102356 -0.274581 0.0372795 0.0513107 -0.230787 0.00371615 0.0955822 0.220375 0.0582409 -0.00789591 -0.090318 0.0783862 0.098453 0.118962 0.0699461 -0.0630389 0.0846612 0.132144 -0.056734 -0.0273959 -0.157707 -0.272805 0.143245 -0.156085 0.0646214 0.170425 -0.0630716 -0.0326803 -0.0244576 -0.245077 -0.0760717 0.233622 -0.0438772 -0.17208 -0.16734 0.134763 -0.0396526 -0.0039309 0.17988 0.14752 0.0454078 0.0882241 -0.0340177 -0.185108 -0.201116 0.0406854 -0.0305334 0.0913873 -0.217052 -0.137175 0.0902557 0.118323 0.101181 0.20307 -0.0770506 -0.163417 -0.0359213 -0.026332 -0.0172787 0.214014 -0.0649833 0.111752 -0.125477 0.226759 0.117404 -0.0263149 -0.0425404 -0.152406 0.0591536 0.182937 0.152206 -0.143323 -0.0651937 -0.0175679 -0.0585082 -0.170074 0.186461 -0.180739 0.0538377 -0.0998456 -0.0606637 -0.115524 -0.09148 0.309 -0.255102 -0.0513549 -0.107233 0.124369 -0.143211 0.0624764
by -0.0744345 -0.0827296 -0.00662887 -0.0557484 0.0144803 -0.0985089 0.135239 0.059151 -0.183245 0.215958 0.0628352 0.0762292 -0.0645391 0.159965 -0.0592534 0.250124 -0.100994 0.102246 0.0199373 0.0029193 0.0336626 0.0182942 -0.185237 0.0448345 -0.08508 0.158752 0.0562971 0.11765 0.156079 0.0547148 0.0308379 0.108461 0.0334067 -0.0715244 0.183081 0.103727 -0.0349214 -0.0199673 0.0291721 -0.0143105 -0.157342 0.0541065 0.0523165 0.0169703 0.0193812 0.059121 -0.0808096 0.0304348 0.0781081 0.0940023 0.185799 0.134868 -0.162703 -0.0741878 0.0297169 -0.055253 -0.200199 0.0239185 -0.151903 -0.0026895 -0.0675568 -0.0463823 0.0195607 0.0474088 -0.142235 0.0215338 0.199797 -0.0462451 -0.0215611 -0.0695912 0.105308 -0.018921 -0.0886609 -0.0292577 -0.0399246 -0.00761219 -0.201977 0.103526 -0.0278626 0.105661 0.0465218 0.219646 -0.17946 0.0414851 0.0689827 0.0805953 -0.0631601 -0.0329385 -0.0368401 -0.00317131 0.0826162 0.0409324 0.146713 0.0237162 -0.0188282 0.0892583 -0.128555 -0.0316233 -0.103782 0.0478322
Superior 0.138186 -0.0889849 -0.113704 -0.0288035 0.123845 -0.0971595 0.163992 0.0199666 -0.1343 0.19838 -0.117373 -0.0993059 -0.0327129 0.206841 -0.0143763 0.218892 -0.0416497 -0.0529011 -0.030392 -0.0836305 -0.0434402 0.0632987 -0.0413328 0.109268 0.0660294 -0.0138276 0.129424 0.164711 -0.0180324 0.137161 -0.135969 -0.136132 0.178046 -0.205382 0.11699 0.00404035 -0.0602797 -0.0273589 0.0662991 -0.0941014 0.0131923 -0.0764174 0.0243344 -0.180669 -0.0525497 0.025166 0.0263431 0.0366032 0.172983 0.0301143 -0.00914537 0.147426 -0.0660812 -0.186904 -0.146025 0.0211996 -0.0140759 -0.0746545 -0.153813 -0.093057 -0.165366 -0.0113398 0.164995 0.0707342 -0.0661931 0.0513903 0.0456065 -0.147146 0.039073 0.1531 0.0300179 0.125021 -0.180208 0.0250074 -0.0418635 0.103814 -0.0185928 -0.123658 -0.039637 -0.00816651 0.0853894 0.00378877 -0.0708179 -0.00333488 -0.0213013 -0.173394 0.0865629 -0.126603 -0.0334035 0.00143131 -0.00631473 -0.0650757 0.00919327 0.138598 -0.0979394 0.118892 -0.127761 -0.00884154 0.0314531 -0.0319033
Court -0.0105824 0.0351348 0.0625131 0.0432907 0.115538 -0.104507 0.075462 -0.0549181 -0.0812631 0.17478 -0.230442 -0.0817338 0.00283816 0.0184894 0.0626007 -0.0710491 -0.0262421 -0.058145 -0.0624336 0.0319306 0.126859 -0.048298 0.0647368 -0.0312746 0.109524 -0.035777 -0.0680088 0.129945 0.0441151 0.0980021 -0.14926 0.112679 -0.0199192 -0.0525358 0.0718357 -0.119307 0.00107897 -0.107422 0.0206576 -0.0589974 -0.0530076 -0.132868 0.011436 -0.0516019 -0.114228 -0.0937165 0.0596218 -0.0324171 0.123054 0.0208858 -0.116794 -0.0535813 0.127903 -0.00792908 0.0588239 -0.0617495 0.0926897 0.0214951 -0.0352423 0.0478046 -0.149091 -0.124774 0.156532 -0.0827587 0.0155001 0.130234 0.168799 -0.167677 0.0829954 0.116082 -0.00572805 -0.108503 -0.143527 -0.0305745 0.0270788 -0.130564 -0.120618 -0.0353576 -0.062536 0.0834743 0.0383065 0.00789135 -0.0752488 -0.109147 0.177401 -0.148151 0.0617552 -0.0815879 -0.0614934 0.168153 -0.0581103 0.0010147 0.00383058 -0.0164856 -0.124573 -0.112379 0.0671995 -0.0540513 0.0830818 -0.0478375
Judge 0.161515 -0.193105 0.0501904 -0.0412117 0.0969023 0.0189747 0.299118 0.0905902 -0.143961 0.0937715 -0.231021 -0.199785 0.147488 0.145805 -0.111248 -0.0124655 -0.0406267 0.0725501 -0.143381 -0.108708 0.129456 0.141241 0.222122 0.0946314 0.13379 0.127429 0.237074 0.192591 0.148592 0.081157 -0.170657 -0.0750948 0.0818456 -0.15149 0.0213059 -0.158733 -0.041075 -0.0984572 0.0682508 -0.113603 0.00412609 0.0902975 0.0822437 -0.137833 -0.125443 -0.0314303 -0.00519298 -0.0275932 0.103521 0.139967 -0.134681 0.134064 0.0961501 -0.272761 -0.208419 0.0758031 -0.0471802 0.0743576 -0.145495 -0.0875175 -0.00237987 0.0306184 0.136171 0.136856 0.0956523 0.131582 0.0882195 -0.187859 0.191048 0.187548 -0.0935403 0.0825913 -0.137589 -0.0530537 0.0715779 -0.0109561 0.0722553 -0.162485 0.00175815 0.116339 0.0967393 -0.102593 -0.0341064 -0.0860872 -0.0111941 -0.116966 0.155329 -0.130236 0.162295 0.111512 -0.19073 0.0468124 0.095665 0.230914 -0.163832 -0.100212 -0.179969 0.00758215 0.00754234 0.0851604
Durwood 0.166671 0.00804103 0.0906532 0.135698 -0.0545237 0.219271 0.176562 0.0628769 -0.110755 0.0981265 -0.0314008 -0.1036 0.0442494 -0.0672463 0.0231806 0.092534 -0.243639 0.0745481 -0.0311755 -0.0700765 -0.054267 -0.0220666 0.0812965 -0.084776 0.188935 -0.0229904 0.208332 0.223238 0.138609 0.124113 -0.0792792 0.189104 -0.0622575 0.132207 0.0450165 -0.0019239 -0.118739 -0.151559 0.0231506 -0.00984223 -0.127037 -0.216839 0.0732578 -0.121171 0.0876662 -0.0694565 -0.102726 -0.00414084 0.0367485 0.0167369 0.106725 -0.0104141 0.0393202 -0.028437 0.0112747 -0.022697 -0.0595721 0.120466 0.0685646 -0.0332434 -0.131269 -0.166407 0.101238 0.171087 0.124968 0.0900455 0.0760957 -0.0342744 -0.000783626 -0.107075 -0.157626 -0.0700046 0.156821 -0.100791 0.0329598 -0.173156 0.0172258 -0.0755312 0.127105 -0.142665 0.0693895 -0.0974267 0.0619224 -0.112756 0.201339 0.0550662 0.0606229 0.010401 -0.0998342 0.124369 -0.157189 -0.076673 0.0962328 -0.00299735 -0.0964162 -0.0369438 -0.170606 0.0454169 0.12057 0.0181316
Pye -0.0229653 0.178147 0.0743796 -0.0720505 -0.0944943 0.0703588 0.132675 0.129795 -0.153895 0.0506397 -0.0356584 -0.198657 0.17311 0.124793 -0.148364 -0.0266126 -0.0743425 -0.0136611 -0.11935 0.0605136 -0.0887865 0.068839 -0.113905 0.0824364 0.164512 0.0380033 0.161641 0.2587 0.158676 -0.017095 0.0892465 0.0838793 0.00831657 -0.0081175 0.00194144 0.16147 -0.121644 0.061758 0.00399516 0.0262338 -0.0485117 -0.029786 0.217264 -0.0823777 0.0733917 -0.0987577 -0.0524509 0.0676085 0.138183 -0.124854 0.254661 0.0760784 -0.134305 -0.0221111 -0.194999 -0.00920763 -0.0494071 -0.0518923 -0.0971685 -0.0110611 0.0250434 -0.156449 -0.00987416 0.105404 0.0400021 -0.0484514 0.0762677 -0.0636574 0.0823997 -0.0133979 -0.0989364 0.110934 -0.163582 0.0707007 0.0445626 0.0710782 -0.0338154 -0.00748164 -0.104268 -0.0933288 0.0949892 0.0334367 0.0328879 -0.122761 -0.0209682 0.102569 0.101076 -0.107601 -0.101934 0.0779225 0.0619869 0.0805267 0.184242 0.0875069 -0.122498 0.201995 -0.124755 0.0236527 0.153402 0.142636
to 0.0280766 -0.129437 -0.0140444 -0.0384395 -0.0800256 0.173977 0.103185 0.000905349 -0.219817 -0.00186976 -0.0721625 -0.16735 0.180782 -0.0392941 0.0917263 0.0267189 -0.175463 -0.039377 -0.183487 -0.149 0.0212138 -0.0997423 0.143229 0.0509951 0.132813 -0.0545708 -0.0226614 0.117398 -0.0216248 0.188182 -0.0438963 0.20088 -0.106549 0.117348 -0.0428592 -0.136549 -0.117688 -0.132311 -0.0337102 0.0492126 -0.042189 -0.231699 0.178434 0.125563 0.00528181 -0.0384882 0.098913 0.0887816 -0.0509081 -0.109719 -0.0425524 -0.0448363 0.0833154 -0.0710849 0.00038706 -0.0487832 0.0548419 -0.0850967 -0.0424886 -0.177994 -0.0831592 -0.137528 -0.0423207 0.0827718 0.159735 0.155067 0.176938 0.0412451 -0.0468483 -0.166779 -0.0657985 -0.0785525 -0.0121749 -0.172412 0.169675 -0.0907199 0.00632857 0.0321801 0.0602422 -0.155264 0.115098 0.0303955 0.116471 -0.0756677 0.157655 0.0372023 -0.0714662 -0.0245822 0.0111409 0.185922 -0.135563 -0.0614142 -0.0988666 -0.0939905 0.136777 0.16938 0.0557196 -0.0319765 0.0707518 0.0970741
investigate 0.147608 -0.0445501 0.0979711 0.0600779 0.0428681 0.0121884 0.108294 0.168423 -0.0217593 0.053044 -0.113231 -0.0466917 0.0295155 0.0615543 0.0478419 0.0804384 0.0661733 0.1292 -0.0844341 -0.0358086 -0.102687 0.075798 0.0192732 0.0189773 0.0809639 -0.0771415 0.0252607 -0.0227856 -0.0664085 0.105365 -0.0206728 -0.0172051 -0.115735 0.108567 -0.0230834 0.10348 0.0497454 -0.0518951 0.0359601 -0.0519469 -0.170337 -0.105846 0.0492983 0.0134879 -0.0350535 0.0784436 0.0232562 0.0581761 0.197522 -0.163193 -0.0473699 0.0236208 0.135876 -0.122441 0.0879608 0.00595671 0.07696 0.0519366 0.184201 -0.0230413 -0.136835 -0.089901 -0.0165998 -0.00898026 -0.120079 -0.0513219 0.0342352 -0.0879806 0.073723 0.0898121 0.0274336 -0.0563943 -0.0636667 -0.0934174 0.0776675 0.0146557 -0.095706 0.0196631 -0.0178414 0.0892593 0.000397653 0.128707 0.0335077 -0.0837326 0.102356 0.0651898 0.168926 -0.0901265 0.0447416 0.0552858 0.0258906 -0.0157699 0.0757361 0.0554105 -0.0240483 0.113066 -0.128903 -0.0178875 0.0161138 0.0383738
reports 0.074426 0.145248 0.140775 0.0936159 0.0259557 0.00403056 0.133808 0.19254 0.0081509 0.00494777 0.0166448 -0.146538 0.147009 -0.011458 -0.0658829 0.0301061 0.100546 0.110685 0.0272582 -0.0444213 -0.0273076 -0.0641381 0.0959737 -0.00546498 0.140705 -0.00171759 0.0494381 0.0786286 -0.0321783 0.138465 0.0981951 0.171813 -0.12379 0.120171 -0.0403831 0.0298943 -0.187745 -0.109862 0.0601756 0.00900812 -0.227102 -0.102893 0.00108589 0.0284915 0.0929419 -0.103343 0.0496299 0.0162218 0.226655 0.0719118 0.137756 -0.0138747 0.0633678 -0.155973 0.0148788 0.149014 0.124137 -0.0030578 -0.0833375 0.0845359 -0.213273 -0.125966 0.0472529 0.0659307 -0.0304248 0.035998 0.10547 -0.0424964 0.109051 0.140569 -0.134521 -0.0747349 -0.0770873 -0.0383001 -0.061612 -0.0419991 -0.134978 0.103369 0.00677426 0.0838808 -0.0273433 0.0149321 -0.0362609 -0.101996 0.127232 0.0211516 0.186361 -0.0952198 -0.12839 0.0248007 -0.125006 0.0396036 0.119851 0.00747249 -0.0856419 -0.0448543 -0.0152879 -0.0417719 0.0896791 0.0513644
possible -0.124083 0.143091 0.198463 -0.0544221 -0.10332 0.0880757 0.00742189 0.0657691 0.118803 -0.0458084 0.0109062 0.0950619 0.0602327 -0.0836809 0.0911178 -0.0641317 0.0830564 -0.00900709 -0.0951965 0.00706972 -0.0670697 -0.126828 0.0643526 0.0237301 -0.000929421 0.0140977 -0.0190329 0.101082 0.0568618 -0.0262343 0.185533 0.0372077 -0.128686 0.100757 -0.102207 -0.0594716 -0.0460994 -0.0907466 -0.0217328 0.156245 0.0577268 -0.207209 0.102846 -0.0257772 -0.00507988 -0.024024 -0.00660484 0.0433076 0.0915303 -0.165949 0.108412 0.00529046 -0.11364 -0.0152551 -0.0140185 -0.00584965 0.0853406 -0.111306 0.0505502 0.082216 0.0447494 -0.0346367 -0.10535 -0.196482 -0.0965638 -0.0515035 -0.102494 0.0350805 -0.0328303 -0.06778 -0.00411301 -0.0861679 0.102751 -0.0901367 0.066154 0.077881 -0.137576 0.0927676 0.0283452 -0.0937018 -0.112352 0.165086 0.107325 -0.0789006 -0.0325289 0.132056 0.109736 0.0799976 -0.103245 0.0400263 0.0178545 0.106042 -0.0169838 -0.0328771 0.0344283 0.153862 0.0184007 0.047494 0.163803 0.0213936
hard-fought -0.183799 -0.172815 -0.0104791 -0.011723 -0.0276505 -0.0467716 -0.0839588 0.0790814 0.0634263 -0.00348339 0.0967051 0.141219 -0.229365 0.0739464 -0.0061566 0.042319 -0.0713372 -0.0258884 0.193598 -0.0399331 -0.0797162 0.029885 -0.0576603 -0.0187341 -0.146553 -0.103236 -0.127642 -0.174629 0.0411452 -0.049518 0.0637756 0.12272 -0.0256091 -0.0497993 0.0994017 -0.00306138 -0.0712 -0.0259224 0.108557 0.0297544 -0.0825665 -0.0556599 -0.0867303 0.154386 -0.0829986 0.0597169 -0.151875 -0.00670377 -0.12624 0.018194 0.00480639 -0.081567 0.0836219 0.0139111 0.138891 -0.0402081 -0.066282 -0.0732849 0.163517 0.0333287 -0.130756 -0.00824292 -0.19077 -0.145928 -0.201733 0.0715445 0.0163223 0.00246712 -0.138263 -0.146345 0.195047 -0.213104 0.00814434 -0.162674 -0.035141 -0.158247 -0.266582 0.0828325 0.0684079 0.177663 -0.144229 0.230001 -0.0957456 -0.0268167 0.0857054 0.0756241 -0.157915 0.133005 0.124408 0.0135149 0.0692136 -0.0710767 -0.21205 -0.0463665 -0.0214955 -0.121104 0.161201 -0.0750717 -0.156855 -0.199156
won -0.101543 0.126436 0.160784 0.0104702 0.0936365 0.0803685 -0.0128425 -0.0430708 -0.00203838 0.260211 0.0298877 0.107229 0.0538095 0.135781 0.0836677 0.134064 0.0240056 0.0234927 0.102588 -0.0710225 0.0232257 0.0726712 -0.0458343 -0.181701 -0.130392 0.201381 0.0533514 0.00274041 -0.00932337 -0.0278414 0.166889 0.088472 -0.011782 0.0489374 0.0145441 -0.0321019 -0.168033 0.146417 0.13115 -0.0772939 -0.0679183 0.175273 -0.107106 -0.0549883 0.140727 0.0486797 0.0677677 -0.0618031 0.104699 0.107185 0.220508 0.134269 -0.00614852 -0.1627 0.0134013 -0.182166 0.0531484 0.00677087 -0.127176 -0.00630678 -0.196911 -0.106809 0.124185 0.0725121 -0.059471 -0.0241934 0.0550302 0.102774 0.18878 -0.00421356 0.228678 0.0799262 0.0701246 0.0922187 -0.198066 0.117471 -0.0164791 -0.118334 -0.188931 0.207063 -0.0661852 0.0855369 -0.132336 0.0634885 0.108965 -0.04706 0.0163117 0.00816431 0.0493337 -0.152347 0.159899 0.0808661 0.107354 0.0366345 -0.107916 -0.107568 -0.212278 -0.219719 -0.20156 -0.00209656
Mayor-nominate -0.191266 0.0247091 0.137187 -0.259939 0.140567 -0.240651 -0.164561 0.163626 0.0967485 -0.0394669 0.206063 0.0307615 -0.0444944 0.107747 -0.211556 0.0230026 0.182724 0.00624229 0.192948 0.0511243 -0.0781288 0.240359 -0.267408 0.00974944 -0.129433 0.225084 -0.119921 -0.273037 -0.101021 -0.215268 -0.0184444 -0.0262795 0.111459 -0.0582165 0.232474 0.12471 0.0515441 -0.146792 0.340118 -0.105064 -0.20719 0.130905 -0.122113 -0.099383 -0.166968 0.269705 -0.24828 0.140165 0.00760863 -0.0622719 0.1186 0.163713 0.0441407 0.0492332 -0.00714466 0.0551915 -0.0192609 0.0920629 -0.0534861 0.0657755 0.0352 -0.188595 -0.101544 -0.140484 0.0286194 -0.13701 -0.0181369 -0.139967 0.0193692 0.00764449 0.107509 -0.120392 -0.162859 0.0763521 -0.208632 -0.0674204 -0.236902 0.165353 -0.0111359 0.188074 -0.210223 0.101641 -0.271476 -0.0535282 0.0972005 -0.0515453 0.0546748 0.0607044 -0.0633599 -0.103279 -0.062509 0.103092 0.0228364 0.0969001 -0.139038 -0.238465 -0.079323 -0.20938 -0.157722 -0.142143
Ivan -0.0731166 0.0603258 -0.0381494 -0.207205 0.00629676 -0.178948 -0.0102067 0.177775 -0.0135525 0.0159367 0.168379 0.00119354 0.0188345 0.0325228 -0.15034 0.0620846 0.217631 0.00480412 -0.0442814 0.129884 -0.0350338 0.113102 -0.275393 0.0950048 -0.123685 0.270861 0.0436518 -0.0447106 -0.186071 -0.10499 -0.0111447 -0.0896786 0.143707 0.0293487 0.178587 0.179898 0.0190544 -0.0616337 0.193553 0.0103339 -0.0445853 0.160476 0.0310082 -0.215881 0.112565 0.214578 -0.104442 0.0926186 0.129437 0.0910849 0.121997 0.210256 0.0905229 0.0381681 -0.0770162 0.0194602 0.076152 -0.0551963 -0.0692699 -0.0773041 0.061551 -0.123552 0.0372832 -0.101112 -0.0774563 -0.183137 0.0725482 -0.0463399 0.215212 0.135088 0.124435 0.107013 -0.153055 0.151256 -0.239956 0.065349 -0.223509 0.0300842 -0.0751034 0.089825 -0.0705681 -0.0211884 -0.22528 0.0912388 -0.115916 0.040209 -0.0103027 -0.100174 -0.19012 -0.26513 0.0912724 0.0627084 0.103237 0.177326 -0.139949 -0.0352035 -0.143606 -0.029342 -0.0366342 0.0196157
Allen -0.0915635 -0.00593749 0.180462 -0.13731 -0.0678721 -0.139397 -0.00117378 0.0533113 0.130276 0.241351 0.17274 0.0279565 -0.129067 0.227893 -0.0549497 0.164173 -0.0149624 0.192847 0.0644948 -0.0755402 -0.0867585 0.21064 -0.107825 -0.0784622 -0.169061 0.09498 0.213748 0.0378976 -0.1266 -0.184767 0.0351182 -0.0986155 0.0564096 -0.0299021 0.142985 0.0388413 -0.143909 0.0681689 0.258664 -0.0828467 0.0620237 0.175709 0.0494721 -0.0895652 0.00586425 0.266551 0.114541 0.019439 -0.0532734 0.187956 0.156607 0.184557 -0.0267893 -0.0900412 -0.0396232 0.0697523 -0.0312648 -0.0681639 -0.0852568 -0.0744625 -0.111159 -0.0145777 -0.000847518 0.127228 0.00450018 0.0595608 -0.0263697 -0.0117462 0.10984 0.00654119 0.114705 0.0867903 0.066384 0.0765625 -0.104946 0.0811949 -0.0695608 -0.0960299 -0.18801 0.0312099 -0.11446 0.0677918 0.0316534 -0.0259677 0.0528904 -0.0531953 -0.0209215 0.0804015 0.109333 -0.184759 0.111948 0.147602 -0.0880575 0.180814 -0.143001 -0.117829 -0.190659 -0.182407 -0.0708343 0.0532751
Jr. 0.0574508 0.0466189 0.109185 -0.129327 0.0224295 0.000666909 0.21423 0.144235 0.020108 0.127355 0.0273438 -0.0282778 0.0778839 0.054089 -0.0542015 0.122039 0.14474 0.179906 -0.0972001 -0.0851808 -0.140281 0.128031 -0.0850038 0.0461957 -0.0117554 0.144431 -0.0153937 0.0728219 -0.169624 -0.0425873 -0.0760416 -0.18299 -0.0169411 0.0483085 -0.0623957 0.134855 -0.0634851 0.0335991 0.190608 -0.114718 0.0201808 0.179743 0.0683174 -0.0951228 0.0682733 0.186486 0.104814 0.112123 0.225173 -0.0517975 0.100043 0.15272 0.0201241 0.027952 -0.184293 -0.0412822 0.17397 -0.0160396 -0.121382 -0.0503389 -0.0479924 0.00500527 -0.0123415 -0.0511711 0.0759664 -0.0772508 -0.148227 -0.0660967 0.164565 0.0785167 0.0244327 0.0247064 -0.120284 -0.0347623 -0.0552281 0.133176 -0.0236325 0.00455782 -0.172082 0.110793 -0.146056 0.0510403 0.0022955 0.0861002 -0.097279 0.0422913 0.239243 -0.189262 -0.0912829 -0.245851 0.0523663 0.113002 0.0404913 0.0391815 0.0204447 0.135169 -0.170925 -0.081883 -0.0288161 0.0743362
